<?xml version="1.0"?>
<opencv_storage>
<stage1>
  <maxWeakCount>9</maxWeakCount>
  <stageThreshold>-1.9979172945022583e+00</stageThreshold>
  <weakClassifiers>
    <_>
      <internalNodes>
        0 -1 1770810 -1.9450912950560451e-03</internalNodes>
      <leafValues>
        7.1913397312164307e-01 -6.6877371072769165e-01</leafValues></_>
    <_>
      <internalNodes>
        0 -1 549251 -2.8398120775818825e-02</internalNodes>
      <leafValues>
        6.3778495788574219e-01 -5.8863091468811035e-01</leafValues></_>
    <_>
      <internalNodes>
        0 -1 1731989 4.6952939010225236e-04</internalNodes>
      <leafValues>
        -7.3289602994918823e-01 4.3002736568450928e-01</leafValues></_>
    <_>
      <internalNodes>
        0 -1 1235979 -1.6106029506772757e-03</internalNodes>
      <leafValues>
        3.6576420068740845e-01 -7.0290517807006836e-01</leafValues></_>
    <_>
      <internalNodes>
        0 -1 1407890 1.5545396599918604e-03</internalNodes>
      <leafValues>
        -3.9518430829048157e-01 6.4766210317611694e-01</leafValues></_>
    <_>
      <internalNodes>
        0 -1 338019 3.6229072138667107e-03</internalNodes>
      <leafValues>
        -3.0386787652969360e-01 7.5705957412719727e-01</leafValues></_>
    <_>
      <internalNodes>
        0 -1 1155848 -1.4759455807507038e-03</internalNodes>
      <leafValues>
        3.9521512389183044e-01 -6.0211837291717529e-01</leafValues></_>
    <_>
      <internalNodes>
        0 -1 665333 -9.6435933301108889e-06</internalNodes>
      <leafValues>
        2.3233047127723694e-01 -8.6938703060150146e-01</leafValues></_>
    <_>
      <internalNodes>
        0 -1 387483 -1.2043891474604607e-03</internalNodes>
      <leafValues>
        4.6196934580802917e-01 -4.5972231030464172e-01</leafValues></_></weakClassifiers></stage1>
</opencv_storage>
