<?xml version="1.0"?>
<opencv_storage>
<stage6>
  <maxWeakCount>12</maxWeakCount>
  <stageThreshold>-1.4009276628494263e+00</stageThreshold>
  <weakClassifiers>
    <_>
      <internalNodes>
        0 -1 1152672 -4.5118462294340134e-03</internalNodes>
      <leafValues>
        5.3441524505615234e-01 -3.5764375329017639e-01</leafValues></_>
    <_>
      <internalNodes>
        0 -1 1529022 4.2044922709465027e-02</internalNodes>
      <leafValues>
        -3.3395257592201233e-01 5.4198276996612549e-01</leafValues></_>
    <_>
      <internalNodes>
        0 -1 934786 3.1797232804819942e-04</internalNodes>
      <leafValues>
        -5.8306962251663208e-01 3.0174720287322998e-01</leafValues></_>
    <_>
      <internalNodes>
        0 -1 1806182 -2.0464396584429778e-05</internalNodes>
      <leafValues>
        2.4141287803649902e-01 -5.5742925405502319e-01</leafValues></_>
    <_>
      <internalNodes>
        0 -1 2064939 -1.5314571559429169e-02</internalNodes>
      <leafValues>
        7.6664996147155762e-01 -1.8961742520332336e-01</leafValues></_>
    <_>
      <internalNodes>
        0 -1 1998215 -9.1149267973378301e-05</internalNodes>
      <leafValues>
        3.3380523324012756e-01 -4.3779003620147705e-01</leafValues></_>
    <_>
      <internalNodes>
        0 -1 1483655 1.0580473463051021e-04</internalNodes>
      <leafValues>
        1.4485304057598114e-01 -8.7629508972167969e-01</leafValues></_>
    <_>
      <internalNodes>
        0 -1 1324379 8.2077051047235727e-04</internalNodes>
      <leafValues>
        -5.7104480266571045e-01 2.2089864313602448e-01</leafValues></_>
    <_>
      <internalNodes>
        0 -1 1391858 1.0755614377558231e-02</internalNodes>
      <leafValues>
        2.1192219853401184e-01 -7.8786563873291016e-01</leafValues></_>
    <_>
      <internalNodes>
        0 -1 72928 4.0939720347523689e-03</internalNodes>
      <leafValues>
        -2.6521739363670349e-01 6.8607091903686523e-01</leafValues></_>
    <_>
      <internalNodes>
        0 -1 1483655 -8.2509461208246648e-05</internalNodes>
      <leafValues>
        -8.3103287220001221e-01 1.9796727597713470e-01</leafValues></_>
    <_>
      <internalNodes>
        0 -1 77729 -5.4360702633857727e-03</internalNodes>
      <leafValues>
        6.6516017913818359e-01 -2.5069090723991394e-01</leafValues></_></weakClassifiers></stage6>
</opencv_storage>
