<?xml version="1.0"?>
<opencv_storage>
<stage0>
  <maxWeakCount>9</maxWeakCount>
  <stageThreshold>-1.5659725666046143e+00</stageThreshold>
  <weakClassifiers>
    <_>
      <internalNodes>
        0 -1 766936 -5.5353539064526558e-03</internalNodes>
      <leafValues>
        8.0501794815063477e-01 -3.8280543684959412e-01</leafValues></_>
    <_>
      <internalNodes>
        0 -1 1545664 -7.4189802398905158e-04</internalNodes>
      <leafValues>
        5.7196533679962158e-01 -4.0411239862442017e-01</leafValues></_>
    <_>
      <internalNodes>
        0 -1 376608 -5.8990698307752609e-03</internalNodes>
      <leafValues>
        6.1953270435333252e-01 -2.4837476015090942e-01</leafValues></_>
    <_>
      <internalNodes>
        0 -1 1801315 -1.7432768363505602e-03</internalNodes>
      <leafValues>
        5.6667995452880859e-01 -3.0947980284690857e-01</leafValues></_>
    <_>
      <internalNodes>
        0 -1 1270268 2.3835324682295322e-03</internalNodes>
      <leafValues>
        -3.7669527530670166e-01 3.6971819400787354e-01</leafValues></_>
    <_>
      <internalNodes>
        0 -1 1896192 -1.8951088422909379e-03</internalNodes>
      <leafValues>
        5.9264069795608521e-01 -2.3108191788196564e-01</leafValues></_>
    <_>
      <internalNodes>
        0 -1 1840630 2.2669122554361820e-03</internalNodes>
      <leafValues>
        -2.1983626484870911e-01 6.3087052106857300e-01</leafValues></_>
    <_>
      <internalNodes>
        0 -1 1445640 -1.6895767301321030e-02</internalNodes>
      <leafValues>
        6.9397735595703125e-01 -1.9458542764186859e-01</leafValues></_>
    <_>
      <internalNodes>
        0 -1 1450193 5.9148259460926056e-03</internalNodes>
      <leafValues>
        -1.7507903277873993e-01 6.1438333988189697e-01</leafValues></_></weakClassifiers></stage0>
</opencv_storage>
