<?xml version="1.0"?>
<opencv_storage>
<stage4>
  <maxWeakCount>29</maxWeakCount>
  <stageThreshold>-1.1983618736267090e+00</stageThreshold>
  <weakClassifiers>
    <_>
      <internalNodes>
        0 -1 1252742 -1.0763514786958694e-02</internalNodes>
      <leafValues>
        6.3283318281173706e-01 -1.2435991317033768e-02</leafValues></_>
    <_>
      <internalNodes>
        0 -1 2203354 6.8755326792597771e-03</internalNodes>
      <leafValues>
        -1.1558412760496140e-01 6.5495085716247559e-01</leafValues></_>
    <_>
      <internalNodes>
        0 -1 1115389 -4.4449354754760861e-04</internalNodes>
      <leafValues>
        3.3972832560539246e-01 -2.6210027933120728e-01</leafValues></_>
    <_>
      <internalNodes>
        0 -1 1645085 -7.1005546487867832e-03</internalNodes>
      <leafValues>
        5.9280419349670410e-01 -1.4408285915851593e-01</leafValues></_>
    <_>
      <internalNodes>
        0 -1 2238770 -6.3411374576389790e-03</internalNodes>
      <leafValues>
        5.4239660501480103e-01 -1.4476704597473145e-01</leafValues></_>
    <_>
      <internalNodes>
        0 -1 2118774 -4.0851806261343881e-05</internalNodes>
      <leafValues>
        2.9109340906143188e-01 -2.4841718375682831e-01</leafValues></_>
    <_>
      <internalNodes>
        0 -1 2237273 3.2552531920373440e-03</internalNodes>
      <leafValues>
        -1.6009576618671417e-01 4.4398742914199829e-01</leafValues></_>
    <_>
      <internalNodes>
        0 -1 2290646 -6.3707083463668823e-03</internalNodes>
      <leafValues>
        4.0149223804473877e-01 -1.7760519683361053e-01</leafValues></_>
    <_>
      <internalNodes>
        0 -1 1478928 -2.2666663862764835e-03</internalNodes>
      <leafValues>
        2.9185223579406738e-01 -2.5439450144767761e-01</leafValues></_>
    <_>
      <internalNodes>
        0 -1 257410 -1.1711493134498596e-02</internalNodes>
      <leafValues>
        6.6441816091537476e-01 -1.2146919220685959e-01</leafValues></_>
    <_>
      <internalNodes>
        0 -1 1739127 4.6173005830496550e-04</internalNodes>
      <leafValues>
        1.2371150404214859e-01 -7.2328066825866699e-01</leafValues></_>
    <_>
      <internalNodes>
        0 -1 1798870 1.8042302690446377e-04</internalNodes>
      <leafValues>
        -2.2473619878292084e-01 3.4232679009437561e-01</leafValues></_>
    <_>
      <internalNodes>
        0 -1 1954585 3.5218505654484034e-03</internalNodes>
      <leafValues>
        -1.4542157948017120e-01 4.6963632106781006e-01</leafValues></_>
    <_>
      <internalNodes>
        0 -1 2072627 -4.7240828280337155e-05</internalNodes>
      <leafValues>
        2.8226405382156372e-01 -2.6136943697929382e-01</leafValues></_>
    <_>
      <internalNodes>
        0 -1 1993944 -4.5868262532167137e-04</internalNodes>
      <leafValues>
        3.9994505047798157e-01 -1.8673366308212280e-01</leafValues></_>
    <_>
      <internalNodes>
        0 -1 1329451 1.6362465976271778e-04</internalNodes>
      <leafValues>
        -1.3806812465190887e-01 4.4429391622543335e-01</leafValues></_>
    <_>
      <internalNodes>
        0 -1 2338840 9.6577359363436699e-04</internalNodes>
      <leafValues>
        -1.3457767665386200e-01 4.4529598951339722e-01</leafValues></_>
    <_>
      <internalNodes>
        0 -1 964169 1.2441236525774002e-01</internalNodes>
      <leafValues>
        -9.1646142303943634e-02 7.0478665828704834e-01</leafValues></_>
    <_>
      <internalNodes>
        0 -1 1806986 4.1745118796825409e-02</internalNodes>
      <leafValues>
        -1.2449270486831665e-01 5.5381643772125244e-01</leafValues></_>
    <_>
      <internalNodes>
        0 -1 1966816 3.3422220440115780e-05</internalNodes>
      <leafValues>
        -2.1164020895957947e-01 3.1898915767669678e-01</leafValues></_>
    <_>
      <internalNodes>
        0 -1 983947 -7.1210839087143540e-04</internalNodes>
      <leafValues>
        3.8131162524223328e-01 -1.7646591365337372e-01</leafValues></_>
    <_>
      <internalNodes>
        0 -1 591957 1.9063068320974708e-03</internalNodes>
      <leafValues>
        -1.5279960632324219e-01 4.3772771954536438e-01</leafValues></_>
    <_>
      <internalNodes>
        0 -1 1478835 -8.5815263446420431e-04</internalNodes>
      <leafValues>
        -6.6670590639114380e-01 9.6121504902839661e-02</leafValues></_>
    <_>
      <internalNodes>
        0 -1 1896112 -1.2065737973898649e-03</internalNodes>
      <leafValues>
        3.2711952924728394e-01 -2.2225734591484070e-01</leafValues></_>
    <_>
      <internalNodes>
        0 -1 2116567 1.2013704981654882e-03</internalNodes>
      <leafValues>
        8.3925820887088776e-02 -8.6700969934463501e-01</leafValues></_>
    <_>
      <internalNodes>
        0 -1 1542053 2.7571507962420583e-04</internalNodes>
      <leafValues>
        -1.8080422282218933e-01 3.6773067712783813e-01</leafValues></_>
    <_>
      <internalNodes>
        0 -1 421401 -2.7591535449028015e-01</internalNodes>
      <leafValues>
        5.8573764562606812e-01 -1.0989008098840714e-01</leafValues></_>
    <_>
      <internalNodes>
        0 -1 942404 5.1450282335281372e-02</internalNodes>
      <leafValues>
        9.6417970955371857e-02 -7.8026586771011353e-01</leafValues></_>
    <_>
      <internalNodes>
        0 -1 1449591 5.9974635951220989e-04</internalNodes>
      <leafValues>
        -1.8215762078762054e-01 4.0544152259826660e-01</leafValues></_></weakClassifiers></stage4>
</opencv_storage>
